FANN_FLO_2.1
num_layers=3
learning_rate=0.700000
connection_rate=1.000000
network_type=0
learning_momentum=0.000000
training_algorithm=2
train_error_function=1
train_stop_function=1
cascade_output_change_fraction=0.010000
quickprop_decay=-0.000100
quickprop_mu=1.750000
rprop_increase_factor=1.200000
rprop_decrease_factor=0.500000
rprop_delta_min=0.000000
rprop_delta_max=50.000000
rprop_delta_zero=0.100000
cascade_output_stagnation_epochs=12
cascade_candidate_change_fraction=0.010000
cascade_candidate_stagnation_epochs=12
cascade_max_out_epochs=150
cascade_min_out_epochs=50
cascade_max_cand_epochs=150
cascade_min_cand_epochs=50
cascade_num_candidate_groups=2
bit_fail_limit=9.99999977648258210000e-003
cascade_candidate_limit=1.00000000000000000000e+003
cascade_weight_multiplier=4.00000005960464480000e-001
cascade_activation_functions_count=10
cascade_activation_functions=3 5 7 8 10 11 14 15 16 17 
cascade_activation_steepnesses_count=4
cascade_activation_steepnesses=2.50000000000000000000e-001 5.00000000000000000000e-001 7.50000000000000000000e-001 1.00000000000000000000e+000 
layer_sizes=37 21 2 
scale_included=0
neurons (num_inputs, activation_function, activation_steepness)=(0, 0, 0.00000000000000000000e+000) (0, 0, 0.00000000000000000000e+000) (0, 0, 0.00000000000000000000e+000) (0, 0, 0.00000000000000000000e+000) (0, 0, 0.00000000000000000000e+000) (0, 0, 0.00000000000000000000e+000) (0, 0, 0.00000000000000000000e+000) (0, 0, 0.00000000000000000000e+000) (0, 0, 0.00000000000000000000e+000) (0, 0, 0.00000000000000000000e+000) (0, 0, 0.00000000000000000000e+000) (0, 0, 0.00000000000000000000e+000) (0, 0, 0.00000000000000000000e+000) (0, 0, 0.00000000000000000000e+000) (0, 0, 0.00000000000000000000e+000) (0, 0, 0.00000000000000000000e+000) (0, 0, 0.00000000000000000000e+000) (0, 0, 0.00000000000000000000e+000) (0, 0, 0.00000000000000000000e+000) (0, 0, 0.00000000000000000000e+000) (0, 0, 0.00000000000000000000e+000) (0, 0, 0.00000000000000000000e+000) (0, 0, 0.00000000000000000000e+000) (0, 0, 0.00000000000000000000e+000) (0, 0, 0.00000000000000000000e+000) (0, 0, 0.00000000000000000000e+000) (0, 0, 0.00000000000000000000e+000) (0, 0, 0.00000000000000000000e+000) (0, 0, 0.00000000000000000000e+000) (0, 0, 0.00000000000000000000e+000) (0, 0, 0.00000000000000000000e+000) (0, 0, 0.00000000000000000000e+000) (0, 0, 0.00000000000000000000e+000) (0, 0, 0.00000000000000000000e+000) (0, 0, 0.00000000000000000000e+000) (0, 0, 0.00000000000000000000e+000) (0, 0, 0.00000000000000000000e+000) (37, 5, 1.00000000000000000000e+000) (37, 5, 1.00000000000000000000e+000) (37, 5, 1.00000000000000000000e+000) (37, 5, 1.00000000000000000000e+000) (37, 5, 1.00000000000000000000e+000) (37, 5, 1.00000000000000000000e+000) (37, 5, 1.00000000000000000000e+000) (37, 5, 1.00000000000000000000e+000) (37, 5, 1.00000000000000000000e+000) (37, 5, 1.00000000000000000000e+000) (37, 5, 1.00000000000000000000e+000) (37, 5, 1.00000000000000000000e+000) (37, 5, 1.00000000000000000000e+000) (37, 5, 1.00000000000000000000e+000) (37, 5, 1.00000000000000000000e+000) (37, 5, 1.00000000000000000000e+000) (37, 5, 1.00000000000000000000e+000) (37, 5, 1.00000000000000000000e+000) (37, 5, 1.00000000000000000000e+000) (37, 5, 1.00000000000000000000e+000) (0, 5, 1.00000000000000000000e+000) (21, 5, 1.00000000000000000000e+000) (0, 5, 1.00000000000000000000e+000) 
connections (connected_to_neuron, weight)=(0, 7.19253122806549070000e-001) (1, 8.36794555187225340000e-001) (2, 7.40358412265777590000e-001) (3, 8.47658812999725340000e-001) (4, 7.08364486694335940000e-001) (5, 6.42379283905029300000e-001) (6, 8.20313274860382080000e-001) (7, 9.45918500423431400000e-001) (8, 9.61592257022857670000e-001) (9, 8.22463512420654300000e-001) (10, 7.78172135353088380000e-001) (11, 5.58708846569061280000e-001) (12, 8.01884531974792480000e-001) (13, 7.44855046272277830000e-001) (14, 5.34283339977264400000e-001) (15, 8.94940614700317380000e-001) (16, 8.19935202598571780000e-001) (17, 9.32369768619537350000e-001) (18, 8.46253514289855960000e-001) (19, 9.38824117183685300000e-001) (20, 9.52942967414855960000e-001) (21, 1.01492941379547120000e+000) (22, 8.54393839836120610000e-001) (23, 7.55619227886199950000e-001) (24, 8.94557118415832520000e-001) (25, 9.26986455917358400000e-001) (26, 8.50300431251525880000e-001) (27, 9.89559769630432130000e-001) (28, 9.02713954448699950000e-001) (29, 6.38229966163635250000e-001) (30, 8.17869722843170170000e-001) (31, 7.16578066349029540000e-001) (32, 6.94414317607879640000e-001) (33, 9.58708524703979490000e-001) (34, 7.30263710021972660000e-001) (35, 7.21120059490203860000e-001) (36, -1.11073303222656250000e+000) (0, 3.65117359161376950000e+000) (1, 2.13912725448608400000e+000) (2, 4.29417419433593750000e+000) (3, 5.34466361999511720000e+000) (4, 2.51762318611145020000e+000) (5, 5.05277872085571290000e+000) (6, 3.29851484298706050000e+000) (7, 5.20359954833984380000e+001) (8, 7.77490282058715820000e+000) (9, 5.42032420635223390000e-001) (10, -5.43041706085205080000e-001) (11, 6.91058111190795900000e+000) (12, 1.00029361248016360000e+000) (13, -1.70633709430694580000e+000) (14, 2.46925425529479980000e+000) (15, 3.17721939086914060000e+000) (16, 3.26719784736633300000e+000) (17, 4.03000402450561520000e+000) (18, 5.81520605087280270000e+000) (19, 3.79104948043823240000e+000) (20, 3.02520084381103520000e+000) (21, 5.16057193279266360000e-001) (22, 2.99821662902832030000e+000) (23, 1.19453897476196290000e+001) (24, 2.48404240608215330000e+000) (25, -6.65251255035400390000e-001) (26, 1.66936206817626950000e+000) (27, 2.58605074882507320000e+000) (28, 4.08751487731933590000e+000) (29, 2.79188132286071780000e+000) (30, 5.60469961166381840000e+000) (31, 3.47305893898010250000e-001) (32, 4.48899936676025390000e+000) (33, 5.29979133605957030000e+000) (34, 6.07607841491699220000e+000) (35, 8.32114219665527340000e+000) (36, 1.30813179016113280000e+001) (0, 1.81974664330482480000e-001) (1, 4.28974121809005740000e-001) (2, 4.21946465969085690000e-001) (3, 4.66301262378692630000e-001) (4, 2.94591635465621950000e-001) (5, -8.88727381825447080000e-002) (6, 5.35586357116699220000e-001) (7, -2.50182696618139740000e-003) (8, 3.38829010725021360000e-001) (9, -1.60291269421577450000e-001) (10, 3.46997141838073730000e-001) (11, 2.91516572237014770000e-001) (12, 2.75767683982849120000e-001) (13, 2.54752282053232190000e-002) (14, 3.81468474864959720000e-001) (15, 4.41930383443832400000e-001) (16, -3.07154625654220580000e-001) (17, 2.82738000154495240000e-001) (18, 1.69684022665023800000e-001) (19, -4.92233820259571080000e-002) (20, -3.87518592178821560000e-002) (21, 1.16749191656708720000e-002) (22, 1.38675838708877560000e-001) (23, -5.03146946430206300000e-001) (24, 4.11167562007904050000e-001) (25, 1.52050837874412540000e-001) (26, 1.98113620281219480000e-001) (27, 5.31417191028594970000e-001) (28, 3.35340619087219240000e-001) (29, -3.18869352340698240000e-001) (30, 3.02798569202423100000e-001) (31, 3.27691942453384400000e-001) (32, -1.61515370011329650000e-001) (33, 4.88919883966445920000e-001) (34, 2.38242909312248230000e-001) (35, -3.47251772880554200000e-001) (36, 3.04882377386093140000e-001) (0, -3.74561431884765620000e+002) (1, 2.98065979003906250000e+002) (2, 3.60872840881347660000e+001) (3, 2.34280349731445310000e+002) (4, 2.14039047241210940000e+002) (5, -2.65048889160156250000e+002) (6, 4.20433349609375000000e+002) (7, 4.36008911132812500000e+002) (8, -2.44620513916015620000e+002) (9, -6.50459899902343750000e+002) (10, 2.36192596435546870000e+002) (11, 7.62890090942382810000e+001) (12, 1.18100418090820310000e+002) (13, 4.56173950195312500000e+002) (14, -2.45985527038574220000e+001) (15, 5.29403266906738280000e+001) (16, 3.17098358154296870000e+002) (17, 3.33547363281250000000e+002) (18, 3.54158935546875000000e+001) (19, 2.48823165893554690000e+002) (20, 5.77018928527832030000e+001) (21, -3.39205169677734370000e+002) (22, -1.18369934082031250000e+002) (23, -1.89517425537109370000e+002) (24, 5.39516296386718750000e+001) (25, 2.76822875976562500000e+002) (26, 3.11877990722656250000e+002) (27, 1.43796493530273440000e+002) (28, 7.91892776489257810000e+001) (29, -2.57175388336181640000e+001) (30, 3.65624084472656250000e+002) (31, 1.29725189208984370000e+002) (32, 6.60796585083007810000e+001) (33, 4.28334579467773440000e+001) (34, -4.20064697265625000000e+002) (35, 2.81392974853515620000e+002) (36, 1.63136688232421870000e+002) (0, 1.99898898601531980000e+000) (1, 1.03797655105590820000e+001) (2, 2.60435891151428220000e+000) (3, 1.68873882293701170000e+001) (4, 8.81365108489990230000e+000) (5, 1.55714931488037110000e+001) (6, -4.35166740417480470000e+000) (7, 1.32479028701782230000e+001) (8, 3.94401192665100100000e+000) (9, 1.23388271331787110000e+001) (10, 9.02943515777587890000e+000) (11, 7.15769720077514650000e+000) (12, 1.39372234344482420000e+001) (13, 1.12050266265869140000e+001) (14, 8.78124713897705080000e-001) (15, 5.70631694793701170000e+000) (16, 1.50545167922973630000e+001) (17, -1.88529098033905030000e+000) (18, 2.74864311218261720000e+001) (19, 1.71039283275604250000e+000) (20, 6.61103534698486330000e+000) (21, 4.09304237365722660000e+000) (22, -3.68551564216613770000e+000) (23, 1.61613571643829350000e+000) (24, 5.59289884567260740000e+000) (25, -4.05168724060058590000e+000) (26, 2.52832078933715820000e+000) (27, -3.19409227371215820000e+000) (28, -2.22171115875244140000e+000) (29, -4.57921791076660160000e+000) (30, 1.33506040573120120000e+001) (31, 8.74548196792602540000e-001) (32, -9.71065330505371090000e+000) (33, 3.87711477279663090000e+000) (34, 2.55888061523437500000e+001) (35, 4.62320417165756230000e-001) (36, 2.63775157928466800000e+001) (0, 8.35943400859832760000e-001) (1, 9.71903264522552490000e-001) (2, 1.17693126201629640000e+000) (3, 9.99668538570404050000e-001) (4, 6.69752240180969240000e-001) (5, 8.15815925598144530000e-001) (6, 1.03839790821075440000e+000) (7, 1.24568939208984370000e+000) (8, 1.04885160923004150000e+000) (9, 9.51419234275817870000e-001) (10, 9.63051795959472660000e-001) (11, 7.77254164218902590000e-001) (12, 9.00851786136627200000e-001) (13, 9.76896166801452640000e-001) (14, 7.45866835117340090000e-001) (15, 1.02709805965423580000e+000) (16, 7.77701377868652340000e-001) (17, 7.63150513172149660000e-001) (18, 9.14394557476043700000e-001) (19, 9.58745181560516360000e-001) (20, 8.37121188640594480000e-001) (21, 7.33581542968750000000e-001) (22, 7.86501944065093990000e-001) (23, 6.18476212024688720000e-001) (24, 9.30790781974792480000e-001) (25, 8.76465976238250730000e-001) (26, 7.78499066829681400000e-001) (27, 8.76835227012634280000e-001) (28, 9.72779989242553710000e-001) (29, 6.88282907009124760000e-001) (30, 8.85120213031768800000e-001) (31, 9.26625609397888180000e-001) (32, 7.96543180942535400000e-001) (33, 7.64082551002502440000e-001) (34, 7.31306970119476320000e-001) (35, 8.97026598453521730000e-001) (36, -1.17431652545928960000e+000) (0, -9.32311713695526120000e-001) (1, -3.38868665695190430000e+000) (2, 6.85293722152709960000e+000) (3, 4.57471323013305660000e+000) (4, 2.07997169494628910000e+001) (5, 1.46916275024414060000e+001) (6, 5.24693775177001950000e+000) (7, 7.26466178894042970000e+000) (8, -3.45621991157531740000e+000) (9, 2.35644888877868650000e+000) (10, -6.11681401729583740000e-001) (11, 1.14867105484008790000e+001) (12, 2.37626609802246090000e+001) (13, 2.42177295684814450000e+000) (14, 8.41793346405029300000e+000) (15, -1.40680904388427730000e+001) (16, -8.79182624816894530000e+000) (17, -2.02058458328247070000e+000) (18, 9.00155258178710940000e+000) (19, 7.56814861297607420000e+000) (20, 4.92727422714233400000e+000) (21, 9.77264881134033200000e+000) (22, 9.66318035125732420000e+000) (23, 3.10287570953369140000e+000) (24, 1.35703220367431640000e+001) (25, -2.33392596244812010000e+000) (26, 1.64255905151367190000e+001) (27, -3.53652787208557130000e+000) (28, 7.83922529220581050000e+000) (29, 1.72280693054199220000e+001) (30, 1.42645807266235350000e+001) (31, 1.73631954193115230000e+001) (32, 3.75384044647216800000e+000) (33, 3.56924462318420410000e+000) (34, 3.41716185212135310000e-002) (35, 8.45010375976562500000e+000) (36, 3.82008666992187500000e+001) (0, -6.70497083663940430000e+000) (1, 4.01773500442504880000e+000) (2, 1.69756948947906490000e+000) (3, 4.10773925781250000000e+001) (4, -4.87839889526367190000e+001) (5, 2.27541809082031250000e+001) (6, 2.11486835479736330000e+001) (7, 2.65488166809082030000e+001) (8, 1.92322025299072270000e+001) (9, -2.06172523498535160000e+001) (10, 1.93971996307373050000e+001) (11, 1.36389961242675780000e+001) (12, 1.85292720794677730000e+001) (13, 7.17364549636840820000e+000) (14, 2.26282424926757810000e+001) (15, 1.21697330474853520000e+001) (16, -2.12286071777343750000e+001) (17, -3.05125102996826170000e+001) (18, 8.36150264739990230000e+000) (19, -2.53301372528076170000e+001) (20, 1.05909090042114260000e+001) (21, 2.49561214447021480000e+000) (22, 1.16852273941040040000e+001) (23, 9.88320541381835940000e+000) (24, -1.43217115402221680000e+001) (25, -5.24363422393798830000e+000) (26, -2.35674781799316410000e+001) (27, 8.25074076652526860000e-001) (28, -2.42977523803710940000e+000) (29, -9.28858280181884770000e+000) (30, -1.53297424316406250000e+001) (31, 1.61227226257324220000e+001) (32, 9.11278057098388670000e+000) (33, -7.92560529708862300000e+000) (34, -1.12737879157066350000e-001) (35, 2.79691429138183590000e+001) (36, -2.63818588256835940000e+001) (0, 1.16351833343505860000e+001) (1, 1.19610338211059570000e+001) (2, 1.44373903274536130000e+001) (3, 7.30195903778076170000e+000) (4, 6.44725227355957030000e+000) (5, 3.77718925476074220000e+000) (6, -1.81951630115509030000e+000) (7, -1.71894609928131100000e+000) (8, -8.52571582794189450000e+000) (9, 9.16790485382080080000e+000) (10, 3.08328723907470700000e+000) (11, 1.13572378158569340000e+001) (12, -3.47597599029541020000e-001) (13, -6.39202165603637700000e+000) (14, -7.97959804534912110000e+000) (15, -5.26131033897399900000e-001) (16, 7.38666868209838870000e+000) (17, 6.53125476837158200000e+000) (18, 5.72643041610717770000e+000) (19, 3.60560297966003420000e+000) (20, -4.26659250259399410000e+000) (21, 1.16992435455322270000e+001) (22, 3.25049853324890140000e+000) (23, 1.33897155523300170000e-001) (24, 2.39098906517028810000e+000) (25, 1.58726143836975100000e+000) (26, 7.36358499526977540000e+000) (27, 1.45314478874206540000e+000) (28, 5.35646247863769530000e+000) (29, -1.63781678676605220000e+000) (30, 2.54302835464477540000e+000) (31, 2.18875670433044430000e+000) (32, 3.97698616981506350000e+000) (33, 2.70612239837646480000e+000) (34, 6.83849394321441650000e-001) (35, 1.35075664520263670000e+000) (36, 2.62310810089111330000e+001) (0, 2.71541061401367190000e+001) (1, -4.51302814483642580000e+000) (2, -6.04935188293457030000e+001) (3, -2.96145033836364750000e+000) (4, 1.00675535202026370000e+001) (5, -1.03082237243652340000e+001) (6, 1.70030422210693360000e+001) (7, 2.36132568359375000000e+002) (8, 7.29848861694335940000e+001) (9, -3.84480208158493040000e-002) (10, -3.78591203689575200000e+000) (11, 1.11018133163452150000e+001) (12, -1.22716083526611330000e+001) (13, 1.70075225830078120000e+001) (14, 6.14124145507812500000e+001) (15, 2.47336082458496090000e+001) (16, -3.71592473983764650000e+000) (17, -6.00695133209228520000e+000) (18, 1.57983236312866210000e+001) (19, -1.18132505416870120000e+001) (20, 8.16693801879882810000e+001) (21, 2.17077040672302250000e+000) (22, 1.22473783493041990000e+001) (23, 3.50618667602539060000e+001) (24, -2.53428115844726560000e+001) (25, -6.58969223499298100000e-001) (26, -7.62831830978393550000e+000) (27, 3.21535453796386720000e+001) (28, 3.33725280761718750000e+001) (29, 4.00010728836059570000e+000) (30, 1.78982391357421880000e+001) (31, -1.59158554077148440000e+001) (32, 1.36975212097167970000e+001) (33, 2.27678132057189940000e+000) (34, 4.92389154434204100000e+000) (35, 1.35676212310791020000e+001) (36, 3.52523307800292970000e+001) (0, 5.81010520458221440000e-001) (1, 5.06596267223358150000e-001) (2, 5.25990605354309080000e-001) (3, 1.06734359264373780000e+000) (4, 5.80932736396789550000e-001) (5, 9.88544166088104250000e-001) (6, 6.24427318572998050000e-001) (7, 8.37628066539764400000e-001) (8, 7.31495738029479980000e-001) (9, 1.10239422321319580000e+000) (10, 6.43209218978881840000e-001) (11, 8.66962850093841550000e-001) (12, 1.05545389652252200000e+000) (13, 1.07605779170989990000e+000) (14, 1.28362512588500980000e+000) (15, 9.22816514968872070000e-001) (16, 8.66376757621765140000e-001) (17, 1.18844485282897950000e+000) (18, 5.09894430637359620000e-001) (19, 8.15333664417266850000e-001) (20, -2.78089824132621290000e-003) (21, 9.28718030452728270000e-001) (22, 8.63282680511474610000e-001) (23, 6.41341149806976320000e-001) (24, 8.32687020301818850000e-001) (25, 4.23195362091064450000e-001) (26, 6.29923522472381590000e-001) (27, 8.73284101486206050000e-001) (28, 7.14302420616149900000e-001) (29, 5.85573673248291020000e-001) (30, 6.34904384613037110000e-001) (31, 6.68863654136657710000e-001) (32, 8.54049921035766600000e-001) (33, 4.98891174793243410000e-001) (34, 8.08929622173309330000e-001) (35, 6.31378233432769780000e-001) (36, -1.01892578601837160000e+000) (0, 5.08181095123291020000e+000) (1, 1.05497248470783230000e-001) (2, -5.11243820190429690000e-001) (3, 2.52942895889282230000e+000) (4, 7.27906990051269530000e+000) (5, 7.08628416061401370000e-001) (6, 2.51410317420959470000e+000) (7, 2.62845206260681150000e+000) (8, 2.70879077911376950000e+000) (9, -8.14346551895141600000e-001) (10, -7.64359116554260250000e-001) (11, -3.44296097755432130000e+000) (12, 6.34668588638305660000e+000) (13, -1.70098900794982910000e-001) (14, 3.21236395835876460000e+000) (15, -6.28351736068725590000e+000) (16, 3.91243743896484370000e+000) (17, 4.00475740432739260000e+000) (18, 1.54262137413024900000e+000) (19, 1.98155117034912110000e+001) (20, 1.32585152983665470000e-001) (21, -5.68479394912719730000e+000) (22, 4.31542062759399410000e+000) (23, -2.65309047698974610000e+000) (24, 2.36482501029968260000e+000) (25, 9.50251388549804690000e+000) (26, 4.56478404998779300000e+000) (27, 2.99399161338806150000e+000) (28, 7.16487026214599610000e+000) (29, -6.79760038852691650000e-001) (30, 8.81692218780517580000e+000) (31, -1.39161241054534910000e+000) (32, 4.38910055160522460000e+000) (33, -4.48607492446899410000e+000) (34, 3.42415547370910640000e+000) (35, -6.65005254745483400000e+000) (36, 1.45033826828002930000e+001) (0, 9.06373977661132810000e-001) (1, 1.02224278450012210000e+000) (2, 1.03773593902587890000e+000) (3, 1.02576804161071780000e+000) (4, 8.75839650630950930000e-001) (5, 9.05447185039520260000e-001) (6, 1.05674183368682860000e+000) (7, 1.21245408058166500000e+000) (8, 1.13244462013244630000e+000) (9, 1.03058373928070070000e+000) (10, 1.01314783096313480000e+000) (11, 8.43311429023742680000e-001) (12, 9.85136985778808590000e-001) (13, 1.02902221679687500000e+000) (14, 9.01681244373321530000e-001) (15, 1.12971329689025880000e+000) (16, 9.55016851425170900000e-001) (17, 1.00582194328308110000e+000) (18, 9.90649223327636720000e-001) (19, 1.05556428432464600000e+000) (20, 1.05837655067443850000e+000) (21, 1.07651615142822270000e+000) (22, 9.85875189304351810000e-001) (23, 8.90128791332244870000e-001) (24, 1.04066801071166990000e+000) (25, 1.00937914848327640000e+000) (26, 9.45556581020355220000e-001) (27, 1.08074879646301270000e+000) (28, 1.06694912910461430000e+000) (29, 8.62670719623565670000e-001) (30, 9.45860385894775390000e-001) (31, 9.72345888614654540000e-001) (32, 9.15855109691619870000e-001) (33, 9.84895825386047360000e-001) (34, 8.69333744049072270000e-001) (35, 9.41612839698791500000e-001) (36, -1.40068244934082030000e+000) (0, 1.14922881126403810000e+000) (1, 5.20188856124877930000e+000) (2, 7.26484775543212890000e+000) (3, 1.29461565017700200000e+001) (4, -4.74889850616455080000e+000) (5, 1.26160931587219240000e+000) (6, 9.97515487670898440000e+000) (7, 1.70536708831787110000e+000) (8, -2.08255624771118160000e+000) (9, 7.32699298858642580000e+000) (10, 1.28524255752563480000e+001) (11, 4.39877939224243160000e+000) (12, 9.51777076721191410000e+000) (13, 1.03367061614990230000e+001) (14, 8.58953952789306640000e+000) (15, 3.07367086410522460000e+000) (16, -1.56761407852172850000e+001) (17, 1.01877272129058840000e+000) (18, -6.50620126724243160000e+000) (19, 1.14415807723999020000e+001) (20, 3.82898473739624020000e+000) (21, -8.82152557373046870000e+000) (22, -3.32187366485595700000e+000) (23, 9.01395511627197270000e+000) (24, -1.20854234695434570000e+001) (25, 1.13019838333129880000e+001) (26, -5.63664865493774410000e+000) (27, 5.02748787403106690000e-001) (28, -2.13251781463623050000e+000) (29, 1.61989223957061770000e+000) (30, 7.60722064971923830000e+000) (31, 3.37481522560119630000e+000) (32, 3.13484716415405270000e+000) (33, 3.77789735794067380000e+000) (34, 7.32031917572021480000e+000) (35, 1.25904855728149410000e+001) (36, 2.74358692169189450000e+001) (0, 1.70310705900192260000e-001) (1, 1.24985493719577790000e-001) (2, -8.93138200044631960000e-002) (3, -1.72846123576164250000e-001) (4, -1.49602174758911130000e-001) (5, -1.51018589735031130000e-001) (6, 4.90130186080932620000e-002) (7, 5.62754943966865540000e-002) (8, 2.99815982580184940000e-002) (9, 6.67189359664916990000e-002) (10, -7.22937211394310000000e-002) (11, 5.35846650600433350000e-002) (12, -4.13015969097614290000e-002) (13, 3.67137826979160310000e-002) (14, 8.82711857557296750000e-002) (15, 1.46667063236236570000e-001) (16, 9.86554548144340520000e-002) (17, -4.18451093137264250000e-002) (18, 1.38508081436157230000e-001) (19, 1.32499858736991880000e-001) (20, 5.28461392968893050000e-003) (21, 2.07529962062835690000e-002) (22, -1.15850888192653660000e-001) (23, -1.08345530927181240000e-001) (24, -3.16599309444427490000e-002) (25, -1.24346882104873660000e-001) (26, 6.30255639553070070000e-002) (27, 1.48735314607620240000e-001) (28, -6.95875007659196850000e-003) (29, 9.66483354568481450000e-002) (30, 8.70885029435157780000e-002) (31, 2.64291077852249150000e-001) (32, 8.31740871071815490000e-002) (33, 7.74046555161476140000e-002) (34, -3.13445320352911950000e-003) (35, 2.58476138114929200000e-001) (36, 2.33388289809226990000e-001) (0, -8.94185733795166020000e+000) (1, 4.85117626190185550000e+000) (2, 3.45730495452880860000e+000) (3, 5.48976755142211910000e+000) (4, 1.61157929897308350000e+000) (5, 3.97234845161437990000e+000) (6, -1.28732776641845700000e+000) (7, 7.88800239562988280000e+000) (8, 2.30270214080810550000e+001) (9, 7.54699277877807620000e+000) (10, 4.45880222320556640000e+000) (11, 5.43356943130493160000e+000) (12, 5.19559431076049800000e+000) (13, 1.43954730033874510000e+000) (14, 5.58598375320434570000e+000) (15, 2.64324855804443360000e+001) (16, 6.19355058670043950000e+000) (17, -1.40805530548095700000e+000) (18, 1.82702579498291020000e+001) (19, 7.44883012771606450000e+000) (20, 4.43171977996826170000e+000) (21, 2.29328880310058590000e+001) (22, 2.74990749359130860000e+001) (23, 7.60618114471435550000e+000) (24, -3.90212774276733400000e+000) (25, -5.93727779388427730000e+000) (26, -7.28871583938598630000e+000) (27, 7.47485446929931640000e+000) (28, 2.86342740058898930000e+000) (29, 1.29189977645874020000e+001) (30, -1.31752758026123050000e+001) (31, 7.05914974212646480000e+000) (32, -5.30186557769775390000e+000) (33, 4.29787492752075200000e+000) (34, 6.40182304382324220000e+000) (35, -4.81535196304321290000e+000) (36, 5.43918952941894530000e+001) (0, -6.57180964946746830000e-001) (1, 6.48998558521270750000e-001) (2, 3.77832025289535520000e-001) (3, 2.86178946495056150000e+000) (4, 3.46773552894592290000e+000) (5, 6.72079443931579590000e-001) (6, -4.85106706619262700000e-001) (7, -2.08556985855102540000e+000) (8, -7.62144136428833010000e+000) (9, -1.69657039642333980000e+000) (10, -5.74435386657714840000e+001) (11, 5.26825070381164550000e-001) (12, 5.94669401645660400000e-001) (13, -4.62558889389038090000e+000) (14, -3.49441432952880860000e+000) (15, 2.51485610008239750000e+000) (16, 1.73632633686065670000e+000) (17, 2.58094334602355960000e+000) (18, 1.20035862922668460000e+000) (19, 6.53552055358886720000e-001) (20, -6.02971839904785160000e+000) (21, -5.72628974914550780000e+000) (22, -3.10987257957458500000e+000) (23, 5.93283510208129880000e+000) (24, 9.45783853530883790000e-001) (25, -1.69346392154693600000e+000) (26, -1.55240070819854740000e+000) (27, -1.39953386783599850000e+000) (28, -1.43134617805480960000e+000) (29, 3.11538362503051760000e+000) (30, 3.96808123588562010000e+000) (31, -1.35729384422302250000e+000) (32, -3.84104704856872560000e+000) (33, 4.41167974472045900000e+000) (34, -3.08725357055664060000e+000) (35, 3.59247398376464840000e+000) (36, 1.61265392303466800000e+001) (0, 4.76420491933822630000e-001) (1, 4.38224196434021000000e-001) (2, 4.98489022254943850000e-001) (3, 4.38059300184249880000e-001) (4, 6.12434625625610350000e-001) (5, 8.63915026187896730000e-001) (6, 5.34814536571502690000e-001) (7, 6.20275676250457760000e-001) (8, 6.93542182445526120000e-001) (9, 4.84538853168487550000e-001) (10, 6.14459991455078130000e-001) (11, 3.50759267807006840000e-001) (12, 4.06347602605819700000e-001) (13, 7.91767537593841550000e-001) (14, 3.79395812749862670000e-001) (15, 5.45767426490783690000e-001) (16, 6.38766169548034670000e-001) (17, 7.43595659732818600000e-001) (18, 2.69886791706085210000e-001) (19, 3.54732871055603030000e-001) (20, 5.94362437725067140000e-001) (21, 5.97464144229888920000e-001) (22, 2.60787755250930790000e-001) (23, 7.43345618247985840000e-001) (24, 1.95211499929428100000e-001) (25, 5.05465090274810790000e-001) (26, 5.06320893764495850000e-001) (27, 7.65411257743835450000e-001) (28, 6.29979848861694340000e-001) (29, 5.72588026523590090000e-001) (30, 5.49242675304412840000e-001) (31, 4.29167419672012330000e-001) (32, 6.00910186767578130000e-001) (33, 4.16807651519775390000e-001) (34, 3.97884771227836610000e-002) (35, 6.89741373062133790000e-001) (36, 4.11754757165908810000e-001) (0, -1.95772930979728700000e-001) (1, -1.14491820335388180000e-001) (2, 9.60993245244026180000e-002) (3, 2.77706950902938840000e-001) (4, 1.18949331343173980000e-001) (5, 1.56059935688972470000e-002) (6, -4.23232316970825200000e-002) (7, 6.48864582180976870000e-002) (8, 3.41294333338737490000e-002) (9, 4.69500012695789340000e-002) (10, 1.84830039739608760000e-001) (11, -7.32947438955307010000e-002) (12, 7.78818950057029720000e-002) (13, 3.80878373980522160000e-002) (14, -1.15514591336250310000e-001) (15, -1.66831657290458680000e-001) (16, 4.53377142548561100000e-002) (17, 1.69901043176651000000e-001) (18, -9.06247124075889590000e-002) (19, 8.65866988897323610000e-002) (20, -1.04417977854609490000e-002) (21, 8.48645810037851330000e-003) (22, 2.64407157897949220000e-001) (23, 9.75763127207756040000e-002) (24, 2.74576276540756230000e-001) (25, 2.68288433551788330000e-001) (26, 4.75297830998897550000e-002) (27, -1.57064825296401980000e-001) (28, 6.56849890947341920000e-002) (29, -1.44240573048591610000e-001) (30, -5.32722882926464080000e-002) (31, -3.45423609018325810000e-001) (32, -4.74942177534103390000e-002) (33, -5.80715164542198180000e-002) (34, 1.17738246917724610000e-001) (35, -2.69723743200302120000e-001) (36, -6.08567520976066590000e-002) (0, 5.41779279708862300000e+000) (1, -3.65624618530273440000e+000) (2, 7.04484939575195310000e+000) (3, 7.00460100173950200000e+000) (4, -3.60029625892639160000e+000) (5, 2.78144383430480960000e+000) (6, 8.70108509063720700000e+000) (7, 4.95396703481674190000e-001) (8, 8.94898700714111330000e+000) (9, 1.92360172271728520000e+001) (10, 8.13673782348632810000e+000) (11, -8.19984197616577150000e-001) (12, 1.34478321075439450000e+001) (13, 9.29847049713134770000e+000) (14, 1.09682893753051760000e+000) (15, 1.96149959564208980000e+001) (16, 1.22683115005493160000e+001) (17, 1.04553661346435550000e+001) (18, 5.59243774414062500000e+000) (19, -1.06818187236785890000e+000) (20, 8.43140602111816410000e-001) (21, 9.72468185424804690000e+000) (22, 9.90918827056884770000e+000) (23, 6.18276548385620120000e+000) (24, 5.76570892333984370000e+000) (25, 1.12494745254516600000e+001) (26, 6.14426660537719730000e+000) (27, 1.37606608867645260000e+000) (28, 4.12507629394531250000e+000) (29, 9.24918365478515620000e+000) (30, 1.34911470413208010000e+001) (31, 1.00435886383056640000e+001) (32, 1.35411138534545900000e+001) (33, 1.23998832702636720000e+001) (34, 1.49986953735351560000e+001) (35, 1.05692844390869140000e+001) (36, 2.89961395263671870000e+001) (37, -1.23198795318603520000e+000) (38, 1.28235340118408200000e-001) (39, 2.45497956871986390000e-001) (40, -8.41677412390708920000e-002) (41, 1.12182199954986570000e-001) (42, -1.08871781826019290000e+000) (43, 1.51767209172248840000e-001) (44, 1.04484431445598600000e-001) (45, 1.74027517437934880000e-001) (46, -9.67559143900871280000e-002) (47, -3.15079480409622190000e-001) (48, 1.03014349937438960000e-001) (49, 2.26434326171875000000e+000) (50, 1.08649291098117830000e-001) (51, 1.11738765239715580000e+000) (52, 2.17441588640213010000e-001) (53, 1.05402678251266480000e-001) (54, 4.65573221445083620000e-001) (55, 9.05941605567932130000e-001) (56, 1.87955632805824280000e-001) (57, -1.56181979179382320000e+000) 
